0.01985286 -0.01776359 -0.0052996143 -0.04970625 0.112486675 -0.14477794 -0.0252611 0.016058765 -0.035845008 0.09010151 0.12525067 0.031659566 0.0011180479 0.0037946664 -0.031447627 -0.08748118 -0.05607366 0.01903422 -0.0064674285 -0.028758345 -0.0671741 0.03872886 0.076714635 -0.01964823 -0.021517618 -0.0031836617 0.0054341285 0.11089785 -0.03871261 0.023383277 0.10430958 0.031878036 0.11589376 0.10750952 -0.017596293 -0.08685943 0.06979951 -0.05183192 -0.017664 0.10188376 0.015446515 -0.0042442894 0.050146867 -0.038566705 0.006244986 0.030055564 -0.0032489467 -0.06650769 -0.10603165 0.10510453 0.0054597077 -0.0032150047 -0.042007543 -0.03038516 -0.013209058 0.046021666 -0.055355918 0.07853235 0.04881898 0.01585366 -0.0022336696 -0.01362022 -0.03497367 -0.06996279 0.009836479 0.06885065 -0.068819895 0.09653871 0.025766658 -0.07640508 0.016309604 0.00838289 0.04533955 -0.007979479 0.102202065 -0.011140499 -0.003589018 0.0352054 -0.07809207 -0.00408735 -0.004031024 -0.013225084 -0.019523986 -0.044313554 -5.065375E-4 -0.024944115 -0.07435608 0.116348185 0.007491489 -0.06489628 0.0970899 6.6142686E-4 -0.054113768 0.03954674 0.017551396 0.028701873 -0.0054364027 -0.0076249116 0.035484992 0.036972802 0.0048244004 0.018585773 0.008264823 -0.052662537 -0.019789066 -0.022657717 -0.063052386 0.12557565 -0.0689888 0.019876447 0.017070994 0.011847599 0.058569793 0.0024408367 -0.02348212 0.07433941 -0.020520385 0.055392776 -0.029327372 0.042103507 -0.07163882 0.0607434 -0.011412792 -0.09679168 0.055797916 -0.03507303 0.08566306 -4.5390357E-4