0.012415275 0.0019738001 0.0029969846 -0.045544244 0.08412725 -0.09965079 -0.033320732 0.011609065 -0.027056465 0.0644211 0.0988168 0.024914429 0.01461818 0.013952065 -0.0037532563 -0.03636955 -0.04230408 0.018714445 0.006822439 -0.030478818 -0.033699837 0.014404209 0.065916285 0.003745951 1.9486503E-4 -0.0032007007 0.014910341 0.06540888 -0.039880194 0.026817 0.07559578 0.040860046 0.08305096 0.06696567 0.0137156155 -0.05062122 0.053577363 -0.035817444 -0.0036383963 0.0859531 0.026412446 0.025746267 0.018765634 -0.038568158 -0.004434642 0.017782187 0.001409779 -0.048360284 -0.055022083 0.10201185 0.0063396366 6.2696676E-4 -0.03129717 -0.017627297 0.003622878 0.038203157 -0.041639645 0.06402797 0.045568 0.017109234 -0.0032875938 -0.015784977 -0.036268335 -0.05210669 0.015043919 0.05329816 -0.04323212 0.06268107 0.01701536 -0.05225253 0.017368212 0.012691202 0.028800657 0.004348186 0.059702467 0.0071506244 0.023282852 0.020761186 -0.05374333 0.01830708 0.0030473417 0.006365462 -0.015513664 -0.025439668 -0.0011243861 -0.0018038155 -0.027836772 0.079067536 0.036642738 -0.031767227 0.069478534 0.024570871 -0.038109805 0.029221414 0.020721493 0.027642952 0.002454747 0.004928258 0.024111688 0.01694149 -0.0014354006 0.016494071 0.0028178543 -0.036804717 -0.0052937963 -0.014897944 -0.06459051 0.08560447 -0.050276197 0.017969536 0.03235068 0.0095398575 0.04254293 0.0232346 -0.004973312 0.05550214 -0.0027182119 0.059795644 -0.022277834 0.027655637 -0.045658402 0.048949026 5.0488143E-4 -0.05950782 0.033544507 -0.009185229 0.063346684 -0.016371923 0.06097856 -0.065908976 -0.051224545 0.021825017 0.096117556 -0.019476557 0.04175414 0.013551354 -0.030828986 -0.022613076 -0.06069891 0.07184809 0.03832482 0.07206455 0.049714513 -0.026112918 -0.018166753 -0.078453556 0.08030524 -0.042840127 0.046357676 0.019559365 -0.032963153 -0.0014166485 0.018831879 -0.019449504 0.0012896198 -0.039332625 0.055237573 0.033742316 -0.04622036 -0.025922664 0.05335963 0.0058030817 0.09331271 0.04829042 -0.0077795186 0.026011461 0.061100412 0.009931948 -0.014269423 -0.051167298 0.057861976 0.054867845 -0.03908535 -0.014690774 -0.08242382 0.005600066 0.045445316 -0.0728436 0.036837325 0.00626908 -0.022030253 0.048909727 -6.386576E-4 -0.008790329 -0.010542408 -0.009894194 -0.059452757 -0.027568506 0.07654709 0.017250063 -0.0847464 0.022351377 -0.02483328 -0.063083984 0.048951693 0.0076407506 0.010510524 0.026143638 0.0036172415 -0.011064418 -0.011488881 0.027356386 0.01596258 -0.04619574 0.017811257 -0.018963309 -4.6466876E-4 -0.07026872 0.026167095 -0.04931624 0.03110069 0.0021030295 -0.06028838 -0.08761949 0.0029670137 -0.0069611575 0.035269666 0.021165721 0.01696251 -0.0076228254 -0.083319776 0.01256176 0.082040146 -0.063989855 0.047073293 -0.002344708 -0.037908502 0.056959357 0.06493795 0.031152 0.06241499 -0.04641448 -0.007822071 0.0465351 0.009524591 -0.034403548 0.041549206 0.033972494 -0.035891987 -0.02749107 -0.06800016 -0.047057737 0.009233185 -0.020455925 -0.014306548 -0.09788023 0.09415138 -0.04220299 -0.0015968669 -0.07346963 0.010588243 0.01041908 -0.07380647 0.027545923 0.0142428465 -0.009701215