0.008173325 -0.01695895 0.010496758 -0.032440968 0.056746468 -0.07211654 -0.019680819 0.005827432 -0.029511213 0.04040687 0.06781893 0.0010350464 0.013150573 -0.003111617 0.002808907 -0.031218017 -0.046394244 0.014650098 -0.0012348414 -0.037801992 -0.033076465 0.0010839732 0.043676894 4.6621816E-4 -0.01941594 -0.0068172156 -0.0018185362 0.039610364 -0.035062123 0.010078221 0.03427485 0.026046375 0.065602235 0.04873232 -0.017196352 -0.032562163 0.04018789 -0.027542388 0.009521525 0.037644614 0.005808103 0.015971573 0.034214914 -0.010775804 -0.0029363523 0.005940541 -0.0060146814 -0.039066464 -0.04097956 0.038124092 0.032961268 0.0012352206 -0.009807485 -0.016647326 -0.0068410835 0.018122759 -0.017464977 0.026335472 0.015988236 0.011957242 -0.002090692 -0.020127444 -0.029764263 -0.014868381 -0.0029672673 0.041200157 -0.03646519 0.04593927 0.0077955127 -0.038140763 0.0012217141 -0.0016314433 0.017005205 -0.013152026 0.04242599 -0.012056135 -0.0048493664 0.024456345 -0.048247993 -0.017813412 0.010359493 0.0043227617 -0.024145475 -0.025416305 -0.0043435153 -0.013653814 -0.03008084 0.0679509 0.0017622203 -0.027704515 0.049470395 -0.008785842 -0.012710703 0.0221913 0.009308589 0.014457009 -0.002010296 -0.015097807 0.014912486 0.009041439 -0.0053042728 0.016641928 -0.0030081437 -0.03072512 -0.015800491 -0.008575706 -0.04298408 0.04847426 -0.03651711 -0.008785093 0.0015565322 3.3260992E-4 0.026494566 -0.011226502 -0.027455347 0.027471537 -0.024300026 0.025286542 -0.013040006 0.003438174 -0.04370456 0.021505697 -0.013031579 -0.05057502 0.040340666 -0.005529804 0.049851317 -0.0047154203