0.02543541 -0.009919162 0.0034653887 -0.039201327 0.07288985 -0.095278196 -0.03646777 0.009849943 -0.027907778 0.055351518 0.089244835 0.003913093 0.005273184 0.0050643864 -0.026313644 -0.053960618 -0.05491683 0.0028460557 -0.0026630757 -0.050264094 -0.05179194 0.012304096 0.05117639 -0.013555843 -0.0137417745 -0.0012327016 5.426805E-4 0.06706015 -0.03636358 0.01782006 0.07900726 0.020373074 0.082022026 0.061295234 -0.013647001 -0.063126355 0.04699352 -0.03347167 -0.009381338 0.06885033 0.0102791935 -0.00425933 0.019155936 -0.03763466 0.0068365415 0.027201405 -0.007513088 -0.0446422 -0.06592825 0.08081272 0.0066988594 0.01605054 -0.0376192 -0.021516869 -0.012752073 0.046585336 -0.03854949 0.06462687 0.024294334 0.0125462385 -0.003292813 -0.028636556 -0.03854094 -0.049420595 0.020989072 0.04927034 -0.05958997 0.069261335 0.005171918 -0.055058416 0.0120371925 0.0080113625 0.019024478 -0.010734031 0.06427226 -0.017442051 0.008417138 0.021828638 -0.053229433 -0.00202744 0.003678514 0.008282804 -0.025193794 -0.027335126 0.0017979312 -0.013297625 -0.039702736 0.081531525 0.0014818502 -0.048806667 0.06491986 -0.004011551 -0.030299285 0.02714084 0.011101452 0.015215163 -5.984962E-4 -0.014237427 0.026634885 0.015770324 -0.003661958 0.021732815 0.012303351 -0.036889378 -0.015049034 -0.016203295 -0.042071056 0.085483 -0.052708834 0.013626045 0.016780911 0.008148344 0.033387046 0.009254008 -0.018439744 0.051124442 -0.016158164 0.043502588 -0.029595172 0.026364151 -0.05350729 0.033293344 1.6141537E-4 -0.06571143 0.04001623 -0.015995279 0.058834713 -0.022673752