0.0033739523 -0.00928763 -0.0058306903 -0.030314852 0.042941134 -0.0749349 -0.026696607 0.008411444 -0.026306834 0.040007815 0.05760792 0.002431225 -5.53182E-4 9.66086E-4 -0.019836506 -0.041599102 -0.044607747 -0.004849399 -0.0036149218 -0.040441502 -0.03897169 0.008347588 0.030444406 -0.015494873 -0.013768024 -0.0020196838 -0.0029777219 0.040801592 -0.027815267 0.009095533 0.06336313 0.015746828 0.05307729 0.04005946 -0.0052529527 -0.04014173 0.024843605 -0.028488932 0.007833308 0.04684892 0.0073197028 -0.0052316613 0.021543846 -0.029394027 -0.011573686 0.0106098885 -0.0064715315 -0.035402063 -0.0591746 0.052562736 -1.7918405E-4 -0.004130907 -0.028640449 -0.005236298 -0.0074913334 0.021723373 -0.032707762 0.034466896 0.016790511 0.0063024336 -0.011009309 -0.022464348 -0.029920056 -0.040046815 3.6681135E-4 0.026996532 -0.04609987 0.040589776 0.010013384 -0.042465404 0.0061606388 0.0012291078 0.0098423315 -0.016925322 0.04048328 -0.0042286757 -0.007390512 0.011248102 -0.04423913 -0.006282603 6.6585554E-4 -0.010199367 -0.016496345 -0.033268444 -6.0989292E-5 -0.013213345 -0.0420247 0.05470998 7.161884E-4 -0.035562195 0.043062117 -0.0047861147 -0.035086602 0.018584581 0.0041485247 0.003684328 -0.0044886237 -0.015929809 0.02219826 0.00883569 -0.0044034333 0.008783199 6.2097085E-4 -0.036696546 -0.014958139 -0.01896422 -0.042293563 0.052940503 -0.041400444 -0.0064132567 -0.0017102882 0.001393814 0.02186119 -0.0071279802 -0.016453665 0.038258765 -0.01954621 0.029813627 -0.021431124 0.017351251 -0.040870596 0.030722212 -0.0078134285 -0.048653938 0.01623093 -0.021090012 0.0440635 -0.015905084 0.028923776 -0.06397221 -0.04927337 -0.0012939249 0.044074576 -0.02332346 0.020089008 -0.016619222 -0.028950065 -0.019534023 -0.052988734 0.039380886 0.025250576 0.047721043 0.018274147 -0.031615708 -0.024343628 -0.0680122 0.045087565 -0.03139226 0.02626705 0.0041493294 -0.035874672 0.010472426 0.0016326137 -0.037828326 -0.010336868 -0.02688703 0.029997265 0.024844503 -0.032769945 -0.024077928 0.0028954225 -0.013598197 0.062401276 0.02621199 -0.019993735 0.021052664 0.04926023 0.0047926563 -0.025680667 -0.04187254 0.045859806 0.03460863 -0.029999867 -0.015205952 -0.0648169 -0.003933364 0.017663747 -0.057574954 0.012689414 0.007839981 -0.01685887 0.013127595 -0.008254079 -0.01169969 -0.01532956 -0.01316899 -0.040516924 -0.02477011 0.046536554 0.0014312755 -0.07180951 -0.007979976 -0.023476146 -0.050795697 0.033950616 -0.009053243 -0.010730801 -0.008491089 2.565591E-4 -0.018234557 -0.01598895 -0.0030310736 0.0016857305 -0.03878641 -0.008951552 -0.0205932 0.004649961 -0.058717173 0.006893727 -0.035251997 0.010871709 8.3913037E-4 -0.061899967 -0.06282101 -0.007989115 0.004613234 0.022615891 0.0051756683 -9.659685E-4 -6.527301E-4 -0.06608559 0.01096612 0.053283136 -0.05038943 0.027954092 -0.008955511 -0.043632537 0.039818972 0.02818158 0.014671654 0.04417015 -0.036034476 -0.017937701 0.028680068 0.0037451014 -0.026870597 0.027155418 0.0051016295 -0.03241053 -0.025200667 -0.054769654 -0.025486456 -0.00193281 -0.015786562 -0.019950347 -0.061487608 0.06460744 -0.04968214 -0.00791768 -0.06599258 4.665135E-4 -0.001194775 -0.057248663 0.016300388 0.002105317 -0.01573836