0.012379398 -0.008979703 -0.0070174984 -0.02946609 0.07320257 -0.10912705 -0.027513715 0.013402031 -0.034079902 0.05270375 0.083496146 -0.0034976902 -0.0045712236 0.0063972175 -0.008716727 -0.046970174 -0.045813024 0.009491546 -0.0075834617 -0.052658476 -0.055130642 0.011427462 0.050361186 -0.02044745 -0.012115191 0.003372489 0.013232639 0.058465324 -0.051997747 0.023870273 0.07662647 0.02263069 0.07944289 0.0648218 -0.0128272055 -0.055344623 0.033428073 -0.036539722 -0.00977785 0.061596725 0.018943174 -0.0054082596 0.021274881 -0.037985086 -0.0033932214 0.018864628 -0.012921219 -0.03862913 -0.08119608 0.079349585 -0.0022830237 0.012310556 -0.020762436 -0.016503138 -0.0055559454 0.042513374 -0.050667875 0.05271501 0.033518516 0.016377697 0.0075437236 -0.023891313 -0.04089785 -0.059503004 -0.0024711732 0.038566742 -0.03778937 0.06958883 0.009273418 -0.0647606 0.019632192 -0.003356154 0.016044164 -0.0038203774 0.05680145 -0.01139602 -0.0052369204 0.023779005 -0.072398074 0.009221157 0.0034674015 -0.014004486 -0.02243372 -0.03234479 -0.003509394 -0.01773768 -0.047120154 0.08326248 0.026684491 -0.049951825 0.06129615 0.004934392 -0.03158302 0.021590421 0.019758195 0.008915556 -0.0028486846 9.2608697E-4 0.030381855 0.017736552 0.015305498 0.0042438875 -0.0029289096 -0.04708627 -0.011871262 -0.020365987 -0.049324505 0.08217349 -0.049472157 -0.017433986 0.006802747 0.009345643 0.039860435 0.01132308 -0.019694703 0.054171495 -0.0139354635 0.04109209 -0.01341453 0.039403662 -0.048086904 0.047287717 -0.011420006 -0.06570553 0.034753937 -0.017107341 0.0628488 -0.017657436