0.059907217 -0.0153941605 0.028081706 -0.08692915 0.23660477 -0.25824678 -0.06517186 0.056938466 -0.06152352 0.1888217 0.27763104 0.055720787 0.03610697 0.025076134 -0.028859688 -0.14880256 -0.15073334 0.06366243 0.010494974 -0.10390967 -0.13815829 0.075017065 0.17977816 -0.013581515 -0.02932532 0.0030557446 0.01677287 0.24974349 -0.104617506 0.09923993 0.23086524 0.09732292 0.2798557 0.20414753 -0.018422844 -0.16354577 0.1649317 -0.086794294 -0.0068789218 0.23860632 0.02670099 0.008396259 0.07719119 -0.10140055 0.0018699061 0.058908097 0.017266437 -0.13083223 -0.19258736 0.26016125 0.050421156 0.0071916142 -0.059328772 -0.046053603 -0.0072922446 0.11062526 -0.09682194 0.16318423 0.10867827 0.04024727 -0.0016938475 -0.039796073 -0.07670317 -0.14040163 0.021753026 0.14442503 -0.15713502 0.20904005 0.029481053 -0.14532019 0.056466233 0.03003897 0.08503566 -0.028989367 0.20640095 -0.0020925037 0.024500148 0.083102584 -0.15282771 0.013998061 0.020233804 -9.748778E-4 -0.038327143 -0.08029607 0.017348807 -0.0048689535 -0.14403749 0.26682064 0.035017155 -0.12432977 0.21072932 0.017918898 -0.1061898 0.095959194 0.052536383 0.07826419 -0.0032999793 -0.014346477 0.11632996 0.06992812 0.020117793 0.049750015 0.030584494 -0.08046291 -0.024353893 -0.02904527 -0.15031868 0.2722628 -0.12852678 0.01771262 0.037624717 0.05412108 0.12386583 0.033101007 -0.009013893 0.19484597 -0.052171696 0.1562809 -0.05007081 0.110303134 -0.14508137 0.13225473 -0.0065128105 -0.19203088 0.12619206 -0.049692113 0.19736803 -0.021549838 0.16939381 -0.2199294 -0.15629034 0.033325568 0.2255048 -0.072932675 0.114997394 -0.014727408 -0.07696979 -0.057018083 -0.18589321 0.20543882 0.15176786 0.26084286 0.12709859 -0.14648584 -0.013936206 -0.22169295 0.16846132 -0.1170866 0.13515294 0.039140243 -0.11986614 0.0055566453 0.025264626 -0.12796554 0.012318894 -0.09043019 0.1459628 0.08696104 -0.10873754 -0.05368222 0.07488912 -0.036946706 0.2524831 0.14431122 -0.017580144 0.080968596 0.1848913 0.058173105 -0.058655996 -0.15518694 0.19762146 0.20290267 -0.10938999 -0.016571363 -0.21168219 0.03468737 0.14553916 -0.21662702 0.069980666 -0.012900801 -0.05400334 0.08207904 0.006152037 -0.007865847 -0.014483453 -0.008936671 -0.19807631 -0.074075624 0.22409146 0.03105476 -0.24588564 0.016033834 -0.05707596 -0.18598573 0.12978998 2.913081E-4 0.0048142374 0.004012536 0.021653952 -0.04108376 -0.025669802 0.06400418 0.020832734 -0.15202758 0.018929336 -0.07557664 0.046828896 -0.18343133 0.03131061 -0.103094205 0.084507726 0.033712108 -0.2256439 -0.23761487 -0.007078726 0.03723109 0.08742849 0.05136317 0.032337364 0.030679446 -0.22932689 0.084238075 0.21578209 -0.16192791 0.15482502 0.007687166 -0.16232099 0.2096 0.16242369 0.040983733 0.20880719 -0.14930733 -0.027417904 0.16195506 0.041247535 -0.14123535 0.11483689 0.081246324 -0.11661909 -0.060488854 -0.19012973 -0.07958751 0.04228428 -0.04404868 -0.036853105 -0.25174072 0.27705574 -0.17389172 0.049023326 -0.21447828 0.037462905 0.034587726 -0.23937811 0.10060296 0.043246858 -0.0137952855 0.05973355 -0.15510003 0.15396167 0.24056306 0.04413271 0.06006368 -0.015684288 0.16688292 -0.17278175 -0.01568511 0.06739339 -0.19397537 -0.0019117803 -0.059454527 -0.05086082 0.2335238 0.0052347584 -0.0019513448 -0.24369769 -0.20174879 -0.23824953 0.100374214 0.051852886 0.1891806 0.04476065 0.053351358 -0.0075073643 -0.27457637 0.08405231 0.013235637 -0.15102473 0.07905949 -0.046639282 -6.191008E-4 0.27254575 -0.13995545 0.0035335363 -0.0044284738 0.0755984 -0.2226854 0.0063921753 -0.18604101 0.05198217 -0.05548405 -0.07593723 0.05974247 -0.016960924 -0.11069032 0.1818898 0.12701751 0.07488962 -0.08847949 0.27814588 -0.045999993 -0.25639004 0.18473592 -0.23185927 -0.037612665 0.022624481 -0.22474384 0.11117962 0.21441151 -0.026586486 -0.011532343 0.012316242 -0.04139102 0.12066896 -0.2486005 -0.016281689 -0.16048631 0.27657086 -0.015448621 0.06049945 0.058875427 0.16875823 0.0695517 -0.009438245 0.0052085067 0.111611694 0.16371334 0.17398109 -0.029106133 -0.25151232 0.024393586 -0.18479837 -0.12991741 -0.11305018 0.08114349 0.19343272 -0.23869142 0.02561626 -0.08008355 0.17288877 0.26964208 0.18930182 0.067840874 -0.09608477 0.11099004 -0.13848038 -0.15285961 -0.105368204 -0.21773708 0.12006937 0.20766063 0.013187149 -0.14121082 -0.03494087 -0.24315819 0.22776513 -0.20323595 0.21658945 -0.15880796 0.19944093 0.07008255 -0.023351802 -0.050460223 0.12092148 -0.14577387 0.17038555 0.14524293 -0.024942065 0.25611213 -0.1492563 0.23681585 0.022796188 0.21880323 -0.122162074 0.21673693 -0.10034736 -0.056621544 -0.011433881 -0.013733557 -0.1184987 -0.17629845 -0.027974764 -0.06298457 0.042401295 -0.16711597 0.110951394 -0.13283598 -0.21467978 -0.049207017 -0.073577434 0.27917826 0.023932684 -0.012995029 0.100889586 -0.07343306 -0.07634709 0.081213035 -0.07996952 -0.0776619 0.012099285 0.07845017 0.106796876 -0.16514961 0.14732946 0.09129345 -0.020986231 0.02977987 -0.1844392 0.06552019 -0.09176503 -0.11976594 0.066637 0.0930148 0.075607106 0.06337841 0.07954914 -0.12260269 -0.13485162 -0.049636792 0.055498254 0.050495677 0.16337147 0.19317086 -0.061793983 -0.0650178 -0.010487063 -0.059767503 0.09054659 -0.015324328 -0.024465786 0.09788026 -0.06254354 -0.18722141 -0.020012345 -0.036099773 0.08213536 -0.084451884 -0.020006333 0.062447242 -0.10756489 0.09148635 -0.07326264 -0.12569408 -0.13840508 0.00641048 0.15100925 -0.09718938 0.087884605 -0.02340169 0.076095544 0.15112402 0.14439082 -0.060846556 0.17256783 -0.17668176 -0.13962568 0.07315609 -0.16038474 -0.105270594 0.05400519 -0.053544227 -0.0807909 0.05036228 0.030116718 0.010297176 -0.013275994 0.19220695 0.12742949 0.093991905 0.07649535 0.023577245 0.103533655 0.11025506 -0.002414604 -0.03025828 0.12150429 -0.14708294 0.20820767 0.12040894 -0.07484792 -0.22876996 -0.07410011 -0.05451902 -0.10993443 0.05680534 0.13334844 0.2482266 -0.002022078 0.19956647 0.030314088 -0.13185447 0.11475698 -0.18400846 0.2130556 0.15553558 0.035577603 -0.19208728 0.13436139 -0.17608912 -0.005900719 0.08686367 0.0943352 -0.08561168 -0.052788835 -0.18784344 0.08969471 0.076593556 -0.15914086 -0.23930356 -0.017682785 -0.22834013 0.040432315 -0.16129614 -0.0042282105 1.4992665E-4 0.21559273 0.09350241 -0.14502296 -0.18551032 -0.03277921 0.17356545 -0.115732044 0.013644179 -0.1494166 -0.051622834 -2.1441426E-4 0.074678145 0.014692563 -0.138611 0.059779305 -7.692651E-4 0.010650315 0.07007261 0.02749886 0.12055484 0.03411842 -0.08041694 0.17352177 0.026526043 0.077081524 -0.027295003 -0.21761179 -0.043085683 0.12487921 -0.0048982245 0.04662513 0.26433513 0.068123 -0.067379065 0.04632044 -0.13009113 -0.09003227 0.017551761 -0.18288498 -0.11468233 0.09744216 0.08363472 -0.18564537 0.15802275 -0.07857603 -0.032069117 0.008086714 0.10192689 0.058105994 0.08969259 0.081304744 -0.1298616 0.10757136 -0.023843639 -0.03361112 0.15013336 -0.16857967 0.17570913 0.15720446 0.07039703 -0.061852578 0.12635355 0.09618525 0.08087284 -0.06837574 -0.06703663 0.11827197 0.057871226 -0.050261695 0.13591693 0.124365024 0.10232661 0.09840543 -0.2191287 0.201633 0.23251554 0.18408152 0.016916536 0.05658336 0.112007745 0.10907352 0.012205508 0.21303484 -0.05098787 -0.13391185 -0.03456965 0.030709144 0.13927482 -0.23352884 0.057054456 -0.05875206 -0.17703885 -0.015517096 0.044689264 -0.012133482 -0.15707737 0.20716126 0.11760668 0.08212208 0.017497893 0.049371727 -0.026343577 -0.08074775 0.09339151 -0.16151543 -0.0674358 0.2233875 0.09567346 0.15865256 0.098316625 0.044467114 -0.22516751 -0.1873475 -0.07049858 0.08052817 0.0111657 -0.25327742 -0.0014495183 -0.0722472 0.19175164 -0.09904094 0.032983623 -0.14162196 -0.22608858 -0.03232199 -0.0801631 0.17601909 -0.19621119 0.15117605 -0.25472155 -0.041854292 0.03339847 -0.08808408 -0.013705912 -0.015775623 0.06365185 -0.13821569 -0.22218096 0.23976529 0.07347151 -0.13617633 0.10017484 -0.17377654 -0.10316029 0.17779356 -0.14829247 -0.049944635 0.18176588 0.030063162 -0.01835615 0.13538015 0.044682115 0.05859876 0.1313308 -0.19180879 -0.10406303 0.20992629 -0.04048894 -0.031658836 -0.08495047 0.04128213 0.08205661 0.20453961 -0.10872511 0.10556777 -0.09547518 0.06568234 0.06405863 -0.056378715 -0.03414215 0.16430831 0.017150665 -0.2008515 0.22420147 -0.08934537 0.023549652 -0.20107289 0.0041913386 -0.16272172 0.13615966 0.084671974 -0.017096832 -0.037816025 -0.20231383 -0.04802148 -0.13895452 0.022977993 -0.1811264 0.21882363 -0.254012 0.0568318 0.21812917 0.078679755 0.04572484 0.10948076 0.2723867 0.2400207 0.095120326 0.02358998 0.21116832 0.06781267 0.026237965 0.038748384 0.07365655 -0.0727549 -0.045167405 -0.10505308 -0.12794149 -0.06322983 0.1266078 0.28000116 -0.22507295 -0.19028243 -0.014288707 -0.099117294 -0.014515806 -0.18599285 -0.21159172 0.018918276 -0.094297215 0.14979246 -0.20177272 0.11564026 0.15288627 0.062195808 -0.0064851 0.0145755345 -0.11445831 -0.18319827 -0.1676359 -0.009432317 0.12130613 -0.10057779 -0.06334202 0.019985957 0.044032753 -0.015754303 0.16267253 0.24841161 -0.06719428 -0.090201095 0.040586904 0.1267365 -0.2282648 -0.048408102 0.11631637 -0.16111843 -0.22324483 -2.5542296E-4 0.20488882 -0.056899432 -0.030377556 0.26880398 0.04915245 -0.013766959 7.7027114E-5 -0.1175109 0.09488705 -0.19297889 0.03147082 0.1263882 -0.12956384 0.0019075655 0.12173396 0.092953 0.19865254 -0.019815104 -0.16539167 0.096124515 -0.010481488 -0.08809921 0.08187241 0.11730915 0.056772124 -0.1936841 0.19470948 0.07079461 -0.24579439 -0.13088703 0.23638599 -0.098297425 -0.062198848 0.101019986 -0.018932404 -0.23528565 0.19951151 0.17097464 -0.18461116 -0.009310116 -0.0035876213 0.099538855 0.06348333 -0.12731731 -0.17388423 0.012228869 -0.015312245 0.049533356 -0.113600664 -0.0935779 -0.16447653 0.030287525 -0.18502527 0.1761867 -0.044555046 0.051933087 0.11277559 -0.25261387 -0.06612819 0.27414393 0.083879635 0.188321 -0.025208363 -0.009402651 -0.09330039 -0.02994668 0.0021121448 0.14024521 0.06136835 -0.19822253 0.26549244 -0.045281723 0.18557104 0.14543745 0.1763041 0.16741966 -0.14790446 -0.1273131 0.113022804 0.006512504 0.13034366 -0.24189463 -0.037346717 0.03271563 0.23427664 0.024249839 -0.17289473 -0.22774863 0.19509447 0.15823743 -0.1232416 0.07643215 0.06798077 -0.20261274 0.22156496 0.10291357 -0.15353465 -0.18498398 -0.027618159 0.095222384 0.1288923 0.13404243 0.034712575 0.07735005 0.13156535 0.17756389 -0.10139607 -0.046852622 0.049740832 0.21339129 0.2820593 0.0176009 -0.17034423 -0.07766476 -0.058427352 -0.25233912 0.1810324 -0.18081868 -0.07976824 0.09823478 -0.023850381 -0.123974405 0.25420353 -0.053370465 -0.048014607 -0.0036262423 -0.09862427 -0.036299642 -0.16388614 -0.20069917 0.1636157 0.093264945 0.16510703 0.12238839 0.12906377 -0.007011583 -0.11281364 -0.27171052 0.062934145 0.07103093 0.049564045 -0.1676261 0.08734425 0.13215175 0.003213932 0.21155271 -0.02769211 -0.08628897 0.1807689 -0.1887066 0.24444658 0.08150023 0.11451307 0.06430852 -0.020453583 -0.15282123 -0.25563467 -0.021037804 0.043754376 -0.18976748 -0.09405829 0.05398656 0.032722473 -0.08824997 -0.08976677 -0.23404543 0.029090783 0.1808816 -0.020019323 0.1717514 0.054601435 0.012132635 -0.13554217 0.013135077 -0.23475413 -0.2104569 0.08164984 0.16675027 0.028475929 -0.02477416 -0.015319525 0.017720718 0.06779691 -0.16455472 0.07361508 -0.028171288 -0.24112861 0.13018839 -0.10384777 0.11889689 -0.14032887 0.046890933 0.16340308 -0.01536123 0.005471569 0.19997807 -0.007999783 -0.08647932 -0.09120464 0.11183396 -0.13735855 0.14588822 -0.07655459 0.008423281 0.25008067 -0.036748596 -0.17751203 0.15359145 -0.14305852 0.14875855 0.13847846 0.23559818 -0.1318816 -0.08824893 0.026688723 0.06834697 -0.09922194 -0.04089213 -0.034908693 0.022275522 0.121400565 -0.05841723 0.07504014 -0.11027612 0.039420143 -0.04318074 -0.06272216 0.047138773 0.007378099 0.098134376 -0.08399294 0.15133996 0.089446045 -0.14924628 -0.225397 0.084137805 0.23231825 0.10135267 -0.12266244 -0.13780527 -0.03869744 0.05188605 0.0024254234 0.052010532 0.05423255 0.09693966 0.023897683 -0.059446417 -0.0038234058 -0.2564109 -0.16669543 0.05423167 0.08667861 0.09321267 0.22453335 0.08805585 -0.108781874 -0.056431007 0.029870862 -0.14754546 0.11821137 -0.2011844 0.22263631 -0.04173817 -0.12431949 0.15620002 -0.1153968 -0.22844772 0.09573502 -0.10661232 -0.0063149105 -0.14779174 -0.25906625 -0.07793429 0.091734335 0.03222039 0.08836743 0.081993684 -0.065889545 0.12498552 0.04676133 -0.21751897 -0.045590274 0.028163344 -0.19833083 -0.1206812 0.042105746 -0.025266677 0.14876778 0.0041650855 -0.21931282 0.04838238 -0.030281553 0.23803194 0.24073637 -0.115866065 0.11639428 -0.103362 0.07492388 -0.027935892 0.13796292 -0.08038596 -0.04720672 0.07478934 -0.08776597 0.05211659 0.12219111 -0.063951984 -0.06327989 0.24627712 0.059447378 -0.03893958 0.20016587 0.059411485 -0.08374929 -0.101808645 0.18825994 0.005069277 -0.045362335 0.060511936 0.13814418 0.09929043 -0.013122667 0.13447751 -0.11773235 -0.034076273 0.13519575 -0.108163446 -0.025618102 -0.07023628 0.104004435 0.06659759 -0.102654785 0.1017928 0.012271462 -0.09401067 -0.036825694 0.054447565 -0.12500152 -0.036019396 0.1439473 -0.004037793 0.10307684 0.13330266 0.06680026 0.22537379 0.054660812 0.1697229 -0.043699823 -0.03877663 0.049371984 -0.012034387 0.09342463 -0.07883675 0.1716825 -0.027156262 0.066396885 0.09408059 0.18762667 0.16647364 0.1397342 -0.18639666 0.08916893 -0.109395444 -0.005683583 -0.008895327 0.028488893 0.010391151 -0.03674461 -0.2700858 -0.083437614 -0.10990728 -0.09498131 0.038980614 0.13136062 0.07362268 0.10720006 0.10231815 -0.105132096 0.11369748 0.058496464 0.07699902 -0.0937378 -0.099237315 -0.05772487 -0.1402564 0.032665487 0.036429603 -0.15253913 -0.063499875 0.14469895 0.23441926 -0.015729161 0.16319303 -0.04275918 -0.16413282 -0.027086388 0.14378351 0.0653921 -0.113936774 -0.023413911 0.04810235 0.054822743 -0.027766986 -0.21026789 0.1405984 -0.21259654 -0.024828438 0.06785673 -0.14127477 -0.08469143 0.16739807 0.049756143 0.06851016 -0.25915566 -0.0058028796 0.048161205 -0.06742656 0.09879696 -0.028511342 0.119260296 -0.13168904 0.10956208 -0.0043713604 0.12048169 -0.009348615 0.023191197 -0.024148604 -0.13143384 -0.023893733 -0.24661149 0.1566799 -0.06462546 0.04976639 -0.10236007 0.026034031 -0.097951986 -0.02735956 -0.024832895 -0.20992318 -0.07052198 -0.08637983 0.077733904 0.020324534 0.12871064 0.18105067 0.20371296 -0.23398101 -0.04618428 0.08770683 -0.0022993102 -0.18196376 0.11050074 -0.197878 -0.07023621 0.0972008 0.12175701 -0.124705754 -0.021397717 -0.03503063 0.033818714 -0.21211895 0.030963719 -0.08502203 -0.26391786 0.12558536 -0.04225983 0.07998664 0.16776331 -0.113688774 0.17932916 -0.28076804 0.07494702 -0.23832232 -0.22314662 -0.21578243 -0.18809405 -0.031114785 0.12043059 -0.014503736 -0.28005525 -0.23799641 -0.06077876 0.07464673 -0.14414608 0.06436955 0.11554457 -0.04485808 -0.097924516 0.046051636 -0.16107613 0.07747464 -0.16468029 -0.05302043 0.17400709 -0.21125266 -0.14482723 0.064119816 0.066084966 0.009229606 0.0578435 -0.09851035 -0.009824821 -0.013769469 -0.052627087 -0.07174564 0.01497064 0.13224149 -0.026941892 0.17766465 -0.08290713 -0.10672497 -0.09754208 0.17558028 0.07239604 0.09150968 0.007388522 0.13427909 0.034875363 0.019889986 -0.026135458 -0.02686355 -0.05682025 -0.017886525 0.01595704 -0.2660963 -0.0127044255 -0.017673653 -0.08732488 0.21402416 -0.25708216 -0.05164998 0.2362439 -0.2506062 -0.10801796 0.2471159 0.19455189 -0.058602717 -0.08317133 -0.018526567 0.025799818 0.08374424 -0.112841584 0.18927974 0.16644555 -0.10318776 0.045030035 0.082520634 -0.0018978665 -0.088863246 -0.15904073 -0.23019472 0.17828949 0.09679979 -0.039763086 -0.13507539 -0.1075662 -0.015593603 0.13319083 0.12901865 0.07301747 0.1414326 0.07201227 -0.014454567 0.0037389966 -0.15554518 -0.0778915 -0.18199182 -0.21780139 -0.08402607 0.034607984 -0.17543478 0.2129214 -0.19127104 -0.23964676 0.035005666 0.0062388997 0.23942919 0.013101424 -0.24963821 0.032475717 0.09675637 0.12965678 -0.15412606 0.0310211 0.23540558 0.04348904 -9.779525E-4 -0.11551469 0.158412 0.21507777 -0.17996722 0.0281727 0.11799657 0.020864412 0.062291943 -0.03992707 0.16376777 -0.047286626 -0.02432777 0.11941548 0.15541169 0.27796254 -0.07179208 -0.11664384 -0.08069135 -0.08361706 0.26263806 0.06861769 0.13092832 0.1741501 -0.12832125 0.20003456 -0.034519687 -0.19171062 -0.06450887 0.09323725 -0.05799805 -0.08474892 -0.22922514 -0.20084506 0.027208887 0.057599943 -0.16526422 0.0878295 0.0049767504 -0.16836247 -0.06112757 0.046256453 0.059965376 -0.0020740286 -0.037469238 -0.0032968672 0.17060985 -0.032820128 0.10401519 -0.27861127 -0.101385064 0.10189135 0.23241614 0.15379176 0.04993542 0.1068061 -0.014169925 0.02356837 0.13702248 0.07105162 0.17654406 -0.0813112 -0.02148517 -0.059597746 0.1746086 0.11135407 -0.026073901 -0.09564831 -0.016660895 0.18045746 -0.21353517 -0.102814876 -0.035539217 0.21097961 -0.007368561 0.015328124 -0.124882795 0.097322665 0.14022788 -0.16328476 -0.0829142 -0.04083493 -0.051420912 -0.21122004 0.0650396 0.0866312 0.11979832 -0.0820241 -0.065713346 0.032921016 0.25482774 -0.005754471 -0.19548692 0.11628721 -0.025001325 -0.07929181 -0.26559618 -0.0857046 0.0024924178 -0.115147635 0.023372049 0.24037376 -0.05959509 -0.036145654 0.055290665 -0.1026293 -0.03516899 -0.117322475 0.012412444 -0.1018688 -0.1185924 0.02466151 0.097047634 0.09558396 -0.12691148 0.24211372 0.16708085 0.050296906 0.15073644 -0.10254577 0.26127154 0.08902638 -0.0368559 -0.20288229 -0.081958376 -0.2675464 -0.25791857 -0.15180393 0.20204875 0.046043836 -0.07995179 -0.021215945 -0.14609748 0.09499695 0.101381846 0.0062031313 -0.17664114 -0.21173526 0.06979524 0.16946225 -0.07971519 0.031550482 -0.03544042 0.01304022 -0.25305447 -0.18853126 -0.15305598 0.1029249 0.0707525 0.08129605 0.01860678 0.07308411 0.0186522 0.14052205 0.08641206 -0.036826264 -0.13417439 0.14244491 0.04988404 -0.17162341 0.046857566 -0.052462887 -0.06749124 0.04093103 0.005247022 0.24140082 0.108719185 0.16279994 0.15857707 0.1151542 0.11306535 0.16945577 0.110028096 -0.0051146965 -0.0881891 -0.038798835 -0.034346662 -0.21593389 0.10872817 -0.14648798 -0.13439691 0.085936695 -0.015777025 -0.17263661 0.040277407 0.18173987 -0.16784306 0.13323598 -0.1462854 -0.14296277 -0.10160781 -0.059177615 0.16008276 0.2060854 -0.056364104 -0.12316491 -0.010513956 -0.07763642 0.101252824 0.18380003 -0.17432445 0.2185434 -0.1668947 0.098481275 -0.040916182 -0.11265461 -0.10186009 -0.13332567 -0.11692574 -0.030492067 0.10981425 -0.076063976 0.09431928 0.091090575 -0.0035419636 -0.26068637 0.049113795 -0.060964704 -0.112245865 -0.06106734 -0.16938992 -0.027668253 0.09466051 -0.1978016 0.16130719 -0.0685348 -0.011656311 -0.11011468 0.14923419 -0.13585667 -0.065068536 -0.090149745 0.2420658 0.107294925 -0.029067429 -0.01950395 -0.029901676 -0.1753657 -0.22665153 0.0049995105 0.14445421 -0.06690749 -0.06134011 -0.08092974 0.06792758 0.062956974 -0.23203169 0.21975464 0.017034112 0.07695244 0.14714675 0.06789168 -0.03131718 2.4257805E-4 0.08487522 0.04029906 -0.035989054 0.22279616 0.08196465 0.085254736 -0.19663131 -0.091242686 0.012298735 -0.19877073 0.17682627 -0.14598306 -0.042232964 0.08169139 -0.011288099 0.06206818 -0.10473682 -0.19997294 -0.08108598 0.007111451 -0.03005143 -0.04161603 0.09400776 -0.033681296 0.0649157 -0.045507498 -0.03258976 -0.04547202 0.06283091 -0.04067701 0.10320335 0.11021302 0.12827799 -0.0486644 0.045767855 -0.24688935 0.044353433 -0.033446174 -0.21248217 0.21449818 0.12622981 -0.06533404 0.07302288 -0.0585619 0.21888827 0.06145422 -0.15099032 0.19664831 -0.033120655 0.007580998 -0.1659963 -0.2522353 -0.038423244 -0.0073921196 0.02421647 0.049461514 -0.10675942 -0.2674951 -0.061166283 -0.16684982 0.23188606 -0.08383547 0.120026335 0.16052517 -0.018420147 0.055082504 -0.0112736 -0.19802809 0.040852305 -0.044161525 -0.081160486 -0.20529437 -0.004103508 -0.100976154 -0.02141204 -0.1444338 0.12522756 -0.045435727 -0.05004911 -0.009634949 -0.042331696 0.103766724 -0.10655864 -0.20228516 -0.034907486 0.16053346 0.09371594 -0.113358885 -0.031695683 0.19185863 0.09760755 -0.07333115 -0.13411386 0.044214625 0.19668983 0.2318273 -0.0039963857 0.18598251 0.06943329 0.025443273 0.013454961 -0.16047081 -0.12971967 -0.01136212 -0.027756218 0.03709745 -0.24640374 -0.03915938 0.04427504 0.0044996273 -0.011604491 0.08700556 0.008242717 0.07679936 -0.053302053 0.069691464 0.13998589 0.010213286 0.26434174 0.2634123 -0.06353549 -0.2732544 0.03761617 0.1953043 -0.09160539 -0.16189623 -0.06313521 0.0995925 -0.080503285 -0.11435419 -0.06964775 0.035168026 -0.24823609 -0.03667372 -0.15290113 -0.008850292 -0.009250233 -0.09840455 -0.06213606 -0.0076760626 0.097365156 -0.07037933 0.09823181 0.07808435 -0.017337404 0.036052004 -0.148618 0.14709787 0.036430106 -0.022951502 0.005737312 0.07343136 0.19647719 0.0108526535 0.1826334 0.19361465 -0.09286224 -0.042106334 0.15192384 0.0067042056 -0.086570226 -0.21542169 -0.021376625 -0.13904665 0.11590879 -0.15039827 -0.12619619 0.15511444 0.15181549 -0.10267788 -0.12085899 0.07271373 -0.056991193 -0.024521234 0.123717226 0.25165585 -0.013302034 0.07700753 0.11717918 -0.09993114 0.014888471 0.114196755 -0.033311103 -0.06413249 -0.27125114 0.0050890134 -0.08312695 0.061758783 0.23566908 0.03420322 -0.14445895 0.056374174 -0.048207216 0.10519617 -0.096547514 0.104943864 -0.22447182 -0.14228484 -0.0031618075 0.14157717 -0.0071714683 -0.08268857 -0.24319705 -0.16707021 -0.0059359726 -0.009845667 -0.2623076 -0.03739925 0.018332738 0.10426624 0.05475611 0.09880283 -0.10034864 -0.024730235 0.09576829 -0.20064032 -0.005819275 -0.08232539 0.09644435 0.15357734 -0.075955085 -0.056955107 -0.18154858 0.18110679 0.06817745 -0.10017631 -0.16404435 0.14206769 0.054976966 -0.045109425 0.1585385 0.03287482 0.03578051 -0.039007768 -0.19383363 -0.03557793 0.15688346 0.11262591 -0.037881482 0.11264464 0.010804832 0.12299275 -0.06725007 0.009136247 -0.05806196 0.0041760188 -0.25737983 -0.07055189 -0.011812868 -0.021737901 -0.050601188 -0.090601526 -0.2530537 -0.07609836 0.182346 0.10348884 0.15013365 0.20919894 0.026484247 -0.2830228 -0.030119658 -0.14167969 0.11729445 -0.19457006 -0.015061032 -0.11685997 0.1837265 0.102807865 -0.019704698 -0.1476171 -0.07638509 -0.20267041 0.05795504 0.0032697204 -0.015353479 0.12067897 0.06390578 -0.07341477 -0.04798008 -0.03115418 0.113861844 0.14916308 0.08634835 0.16634165 0.058797967 -0.11916583 -0.13569246 -0.033524808 0.21767503 0.0065234816 0.04151308 0.19557539 -0.06002935 0.06648511 -0.18736902 -0.16749905 0.117621414 -0.049223233 0.15106824 -0.20927852 -0.007073385 0.11394797 0.17212643 0.20148486 -0.00728898 0.10743796 -0.18331067 0.21595573 -0.14527547 -0.025848929 0.07977361 0.10569216 0.043087527 -0.04813552 -0.16377242 -0.06960217 0.1843175 -0.13449258 0.1661151 0.11637326 0.1546543 -0.02501022 0.27919632 -0.01538241 0.16978519 -0.0058602844 -0.011343043 0.05234629 0.060746808 0.079075 0.17921712 -0.11783438 0.021545095 -0.01813512 -0.09885671 -0.035241205 -0.10531061 -0.11605865 -1.0699254E-4 -0.05860047 -0.1612099 0.21292049 -0.002600781 0.0883035 0.0125156045 -0.06777736 0.054935124 -0.1663713 0.0036052375 -0.11664204 0.0013694544 0.068124875 0.22933519 -0.023644585 0.113405816 0.031484403 0.1209483 -0.08599765 -0.040809922 0.107061684 0.07110458 -0.055230174 -0.012275826 0.08143189 -0.25032222 0.24684967 -0.12964135 -0.07530695 -0.03177729 0.037526507 -0.17489079 -0.05973725 -0.05603529 0.19960941 -0.28143916 -0.20775793 0.19439644 0.101752974 0.10789577 0.1845007 0.18425716 -0.23625146 0.073873065 0.050557226 -0.021701552 -0.1365946 0.02382225 -0.008871663 0.027430616 -0.07489719 -0.07221964 0.15777873 0.087452576 -0.015828153 0.2278277 0.02698373 -0.11538299 0.118735895 0.061516374 0.008057111 -0.008820544 0.18761788 1.870883E-5 -0.049913004 0.16565424 0.022462549 0.12329742 0.03362449 0.108655564 0.20521916 -0.07381587 0.25949344 0.047677405 0.17069496 -0.08042455 -0.14008859 -0.28173736 -0.19082023 -0.20544146 -0.10915761 -0.093895905 0.10533443 0.2772577 -0.05549102 0.021983368 -0.16067562 -0.024660805 0.15172759 0.08332011 -0.12092788 0.1346314 -0.056799237 -0.06159619 0.115573354