0.0077887415 -0.012615289 -0.0033404932 -0.031552676 0.05254071 -0.07415218 -0.020699553 0.005310177 -0.015147312 0.04176596 0.07042895 0.004170286 0.008933017 6.0207316E-5 -0.012995855 -0.039878383 -0.041919857 0.0072040777 6.0935447E-4 -0.037795514 -0.031162325 0.008311072 0.04363819 -0.012749304 -0.01403767 -0.00471828 0.001898151 0.04829456 -0.028668474 0.020390125 0.05641736 0.016412279 0.06684387 0.056797754 -0.013666781 -0.048361093 0.042798355 -0.019161072 -0.009145846 0.05760766 0.0058643636 -0.005208471 0.012733972 -0.019351417 -0.0075143734 0.013702144 -0.0018040444 -0.037810203 -0.05928697 0.07397829 0.0019357824 6.8736204E-4 -0.02517664 -0.018762091 -0.009442358 0.021689367 -0.026384119 0.034339745 0.015373547 0.009320267 0.022602066 -0.014098418 -0.008573572 -0.040709734 0.0024306364 0.030449133 -0.0358211 0.046879638 0.005533903 -0.035883732 0.005359742 0.011248082 0.021890916 -0.012409717 0.056629986 -0.010902072 -0.002687241 0.01566716 -0.050029956 -0.00650259 0.010350469 -0.010118149 -0.007511816 -0.027199972 -6.573486E-4 -0.0149353985 -0.029117065 0.072209015 0.0014755873 -0.030467872 0.04829432 -0.0063083917 -0.03316048 0.024349198 0.0031887987 0.028281532 -0.00791085 -0.008799127 0.019496491 0.013237443 -9.925006E-4 0.0076344027 0.0017634436 -0.0039680977 -0.00656205 -0.013249071 -0.043606393 0.061907798 -0.035407353 6.5598014E-4 0.005809222 0.005003808 0.033334296 0.0070727533 -0.010240478 0.044117462 -0.005905157 0.05660339 -0.019988714 0.01988103 -0.022904254 0.028533628 -0.0012313158 -0.055717725 0.026371539 -0.0181951 0.055733323 -0.012325151 0.032127243 -0.059618983 -0.040487174 0.0039050544 0.067264885 -0.023845315 0.022092305 -0.007143358 -0.022226037 -0.0141618475 -0.029134264 0.04310038 0.025522674 0.051479995 0.020936167 -0.034116928 -0.013129438 -0.066683464 0.03924403 -0.030971073 0.02937245 0.001791058 -0.028832665 -0.002036044 0.0010601262 -0.02480753 0.008159935 -0.029770475 0.032529615 0.00907459 -0.03048048 -0.014150633 0.0133085605 -0.012777971 0.059160315 0.026905242 -0.017252153 0.014492702 0.037133675 0.015670868 -0.026639601 -0.043226443 0.04095286 0.04154132 -0.032604724 -0.014012384 -0.056395084 -4.8743663E-4 0.039761875 -0.06101514 0.02133041 0.0024402288 -0.016642943 0.020415459 0.011515904 -0.008128597 -0.015924998 -0.0024434018 -0.05330795 -0.017892906 0.04502203 3.1972743E-4 -0.062145133 0.004873665 -0.021665884 -0.052577786 0.023251293 0.0035243279 0.009192511 0.0067951684 -5.4521696E-4 -0.020888403 -0.007772102 0.0065032444 -4.5528967E-4 -0.043600794 0.0065820753 -0.024124732 0.0061871167 -0.05702493 0.0029516425 -0.012242802 0.012752116 0.0067434884 -0.06018762 -0.06749976 -0.0041768886 0.0033830563 0.020478152 0.0071943887 0.003869154 0.006429739 -0.064777106 0.016452413 0.045790907 -0.053599317 0.029809728 -0.0043668887 -0.046620835 0.04822027 0.031321295 0.026694635 0.04490361 -0.042074896 -0.01726619 0.034420542 0.0036142895 -0.029367017 0.02579713 0.022969043 -0.030961668 -0.022428248 -0.05188494 -0.0061489088 0.0023540945 -0.021483172 -0.016134378 -0.062075004 0.077934615 -0.051842224 0.0074068834 -0.05545949 0.018299378 0.003822211 -0.06358698 0.016579792 0.009917297 -0.00946787 0.016893476 -0.044923477 0.02145897 0.05534439 0.01062398 0.010800285 -0.007534392 0.040433444 -0.047243286 -0.012393575 0.0061097727 -0.053414613 -0.007980255 -0.016530318 -0.017038323 0.05427682 -0.0060316767 0.017857619 -0.06649311 -0.05695562 -0.06472819 0.017331265 0.017998498 0.034639165 0.007833035 0.009532134 -0.006894195 -0.0487846 0.018342648 -0.005061467 -0.043943923 0.021432394 -0.016995046 -0.011383167 0.06877944 -0.033268325 -0.0016517565 -0.010916178 0.012760126 -0.050817832 0.0026687784 -0.04837425 0.0025025972 -0.01898361 -0.029069694 0.012657948 -0.013208464 -0.037019607 0.03862282 0.025322221 0.00842496 -0.027161963 0.062388074 -0.010759645 -0.065619655 0.05588583 -0.06288948 -0.017766539 0.004668967 -0.06781635 0.0170392 0.03901843 -0.0042581344 -0.007676644 -0.008251095 0.0071032946 0.024821555 -0.071263194 -0.008881322 -0.044407845 0.066108935 -0.0102584455 0.01867044 0.027223546 0.047056697 0.010684656 -0.00700822 -0.011219214 0.021831738 0.032027304 0.06731127 -0.022158928 -0.06550799 -0.0017304874 -0.05175127 -0.03777691 -0.039743256 0.006409125 0.054863367 -0.06261501 0.0052808323 -0.024381928 0.03669164 0.061487146 0.04841923 0.022537764 -0.02922811 0.0212167 -0.034569245 -0.035624497 -0.03784677 -0.061041515 0.031872995 0.04898417 -0.0067597628 -0.04454176 -0.02288907 -0.072178856 0.046539515 -0.054178927 0.048777334 -0.036625363 0.05181105 0.010402092 -0.006338822 -0.017420061 0.024197416 -0.03749768 0.036898367 0.025482032 -0.011183199 0.05357621 -0.04134538 0.048875432 -8.1640045E-4 0.072140165 -0.03494169 0.048042376 -0.023889672 -0.0223387 -0.012291917 -0.011706472 -0.024570419 -0.042288974 0.0030144784 -0.022512177 0.007405507 -0.051228184 0.043149825 -0.025588235 -0.057491872 -0.012291843 -0.031684488 0.06295591 0.0128547205 -0.0017965913 0.015026444 -0.023419734 -0.005034721 0.022417128 -0.025132602 -0.02622338 -0.0027181956 0.014510596 0.015200967 -0.045369886 0.03899926 0.03209663 -0.005622417 0.00982157 -0.046037994 0.013732032 -0.030286629 -0.036187634 0.011533624 0.021603553 0.016082209 0.0065944884 0.014910994 -0.038077526 -0.046016052 -0.013597522 0.007400473 -9.7477995E-4 0.036615096 0.04273871 -0.020254962 -0.025103584 -0.0010091505 -0.003874718 0.024123712 0.0037633295 -0.012812641 0.016873384 -0.02102645 -0.05653494 -0.011308027 -0.004623209 0.03327894 -0.028341528 -0.0010030322 0.0022108587 -0.03238824 0.014322913 -0.0140285725 -0.033150934 -0.03460127 0.0016318243 0.04142666 -0.030546684 0.015331833 -0.007854135 0.009617309 0.030545 0.025548432 -0.012517405 0.04524193 -0.047263224 -0.03204643 0.013013229 -0.04748445 -0.032948602 0.02582768 -0.02259001 -0.02551657 0.0077882875 0.0015148824 -5.3341795E-5 -0.004192935 0.04463863 0.027078798 0.016705671 0.012300622 -0.005857826 0.012337315 0.025833225 -0.008058232 -0.012632132 0.026770983 -0.04521189 0.051124647 0.02985321 -0.031109015 -0.05532608 -0.019106194 -0.0066361385 -0.03710785 0.0047721746 0.027530823 0.054172754 -0.012295855 0.0453013 -0.005991603 -0.0367554 0.019492654 -0.03277331 0.044039905 0.03856194 4.8146397E-4 -0.054204606 0.026483437 -0.05076735 -0.007993999 0.015254253 0.018710015 -0.030617634 0.0012220093 -0.056013342 0.016639851 0.0146881845 -0.05380085 -0.06603213 -0.013126124 -0.064760156 0.003146937 -0.04889114 -0.0042774878 -0.006297154 0.054866258 0.023247551 -0.015579279 -0.06049167 -0.011055895 0.041788656 -0.038591772 0.028233856 -0.039583202 -2.637232E-4 -0.005913264 0.033028692 -0.0018221358 -0.027642302 0.017553303 -2.6067373E-4 -7.767012E-4 0.012549859 -0.0062901177 0.022855753 0.0030877164 -0.025586564 0.037321515 0.003904398 0.011260113 -0.009520913 -0.056287747 -0.01314448 0.02068637 -0.007079905 0.020384174 0.06323263 0.008049675 -0.017597215 0.004645503 -0.03735992 -0.019213766 0.008369411 -0.05050095 -0.031072248 0.016281748 0.010941623 -0.057684302 0.031249832 -0.028296199 -0.015487218 -2.4046698E-4 0.015404877 0.0021653257 0.014909731 0.020299256 -0.025162695 0.01936227 -0.01319459 -0.010555582 0.042803805 -0.044090413 0.03537796 0.04537642 0.0143835135 -0.022263907 0.013776791 0.017409686 0.019333933 -0.025297454 -0.027998473 0.028629212 0.020246258 -0.020967208 0.030999973 0.03969891 0.019408235 0.018930307 -0.058643334 0.04308283 0.05401808 0.039509702 -0.0023896326 0.0018961363 0.029721698 0.026408017 0.0075126905 0.04006581 -0.022496795 -0.044703703 -0.013908415 0.0053563374 0.034192033 -0.059932217 0.003970588 -0.022347977 -0.049471367 -0.011708209 -0.0010579245 -0.0024333776 -0.045387015 0.045195114 0.029103698 0.015060095 -0.0063891066 0.008947143 -0.0062210346 -0.026849179 0.012759035 -0.0404301 -0.013990279 0.04657731 0.019625826 0.043446854 0.012933533 0.006749064 -0.047988098 -0.05481056 -0.014717394 0.020086303 -0.004618931 -0.068208516 0.0012494583 -0.00951636 0.04135053 -0.03451293 0.003348706 -0.044947665 -0.06320704 -0.011237299 -0.027974205 0.038841523 -0.054630537 0.02851366 -0.066537306 -0.014301674 0.008789017 -0.0075093 -0.009549422 -0.011227669 0.002303256 -0.041968714 -0.064264305 0.054444652 0.0149650425 -0.0356066 0.02096474 -0.053694177 -0.04022586 0.04654938 -0.04041135 -0.020658799 0.055468924 0.0049204794 -0.014018834 0.04559204 0.008340474 0.0061874944 0.024102654 -0.05032847 -0.038102668 0.06417784 -0.005445213 -0.008160294 -0.023490066 0.014148025 0.02214181 0.060628973 -0.031754732 0.020552719 -0.030074952 0.028515805 0.013361237 -0.015426639 -0.02332246 0.041468263 0.0021791647 -0.057512835 0.04828307 -0.025339272 0.0040366896 -0.05662621 -0.00868894 -0.032317407 0.02809892 0.008298268 -0.0040540667 -0.018098444 -0.049805127 -0.013361942 -0.042388186 0.010544025 -0.057623148 0.046956174 -0.06863716 0.016983744 0.049118243 0.014944207 7.044194E-4 0.02305625 0.06506401 0.060064442 0.009561556 -0.0013573574 0.04559496 0.012984312 -0.0011116709 -0.002181467 0.013155988 -0.016919835 -0.01850299 -0.034029096 -0.04730874 -0.01356419 0.026603656 0.054761946 -0.06666184 -0.045120597 -0.0085928105 -0.030154416 0.013137457 -0.04877544 -0.049200624 0.002198216 -0.020969916 0.027532216 -0.06172238 0.023004059 0.030848172 0.01048803 -0.0015985298 -0.0051015746 -0.037909765 -0.040208638 -0.045928802 -0.0073984163 0.023113979 -0.029954806 -0.019729242 -0.0031785683 0.0076689576 -0.005829378 0.03197586 0.054940976 -0.02103521 -0.019121964 0.009364133 0.021258233 -0.056318376 -0.016019763 0.026260683 -0.04376885 -0.055212792 -0.010239761 0.04553211 -0.017222783 -0.0062760646 0.0684179 0.016218811 0.011869565 -0.0015152685 -0.025269592 0.014972715 -0.055718902 0.008584921 0.047719453 -0.039658662 -0.0064450684 0.037150033 0.019413937 0.05125779 -0.0068566836 -0.03779228 0.020835184 -0.011205606 -0.033339467 0.015096892 0.052365605 0.01938492 -0.053034164 0.04248488 0.009555748 -0.06355311 -0.03471352 0.05367103 -0.03380818 -0.01319911 0.017488638 -0.008137195 -0.07041932 0.047962077 0.045260947 -0.047674768 -0.0043346533 0.001500404 0.020348184 0.0035520333 -0.03853505 -0.05345432 -0.0015519348 -0.011780526 0.020995252 -0.039237607 -0.028913088 -0.044858254 0.0049787443 -0.045332894 0.045272138 -0.009866552 0.009195882 0.025020162 -0.070804365 0.0046811295 0.06142448 0.015210932 0.048487537 -0.011543329 -0.008903444 -0.010292636 -0.0025935816 -0.0060601104 0.03941751 0.0078764185 -0.056520503 0.05862434 -0.01657583 0.04996248 0.051719777 0.035319816 0.0419872 -0.04336502 -0.035633367 0.02182521 -0.006838605 0.034174085 -0.06605117 -0.018115921 0.0035580532 0.052379362 0.013740507 -0.049861576 -0.06440987 0.04758699 0.037206635 -0.033173975 0.014675857 0.013089455 -0.058134913 0.044745456 0.021238707 -0.032500163 -0.048012357 -0.0133918235 0.017556667 0.021925306 0.03625624 0.0117719695 0.01784452 0.024244556 0.040029284 -0.029061854 -0.016033858 0.0049101193 0.047335815 0.0624608 0.0058920933 -0.05203919 -0.03160312 -0.021677572 -0.061893005 0.040458724 -0.052429847 -0.029245209 0.025028028 -0.0039659436 -0.03782051 0.0602343 -0.013512113 -0.02102093 -0.0056855753 -0.03303294 -0.021906039 -0.05054479 -0.045977242 0.033005096 0.01673814 0.04145313 0.021688577 0.019378377 -0.01251761 -0.027616436 -0.07539889 0.010661276 0.0034940236 0.008403924 -0.052120715 0.019719943 0.031801544 -0.0025443698 0.043182246 -0.013899679 -0.024039624 0.034679785 -0.06156456 0.05726596 0.019415531 0.017451003 0.015471051 -0.015716307 -0.04538023 -0.07801148 -0.0036565994 0.0067442325 -0.05942772 -0.029773269 -0.002135421 0.0051334854 -0.027452184 -0.024695469 -0.066405244 0.002325399 0.043783538 -0.009759783 0.03571435 0.011326469 -9.46713E-4 -0.035519104 -0.0103937425 -0.06134242 -0.053325843 0.013597315 0.024476007 -2.7075963E-4 -0.020985845 -0.015444921 0.0022069332 0.012148317 -0.045986667 0.019064374 -0.006650612 -0.06386548 0.025813634 -0.02389372 0.02963941 -0.037625328 0.0036662503 0.032570157 -0.009205186 -0.0060183527 0.042620923 -0.007800015 -0.027020546 -0.03428738 0.021775333 -0.03355571 0.059710663 -0.024046188 0.006398954 0.059561722 -0.0075838985 -0.050890483 0.031298093 -0.040931854 0.027835676 0.028642358 0.057985988 -0.041479535 -0.026724823 6.9690007E-4 0.020916894 -0.029742 -0.011530432 -0.014889247 0.0039284257 0.02633444 -0.022952097 0.015608193 -0.035001133 0.0071822475 -0.017721077 -0.015260335